digraph Tree {
node [shape=box] ;
0 [label="X[20] <= 0.5\ngini = 0.249\nsamples = 1134\nvalue = [969, 165]"] ;
1 [label="X[14] <= 1.5\ngini = 0.432\nsamples = 304\nvalue = [208, 96]"] ;
0 -> 1 [labeldistance=2.5, labelangle=45, headlabel="True"] ;
2 [label="X[19] <= 1.5\ngini = 0.337\nsamples = 168\nvalue = [132, 36]"] ;
1 -> 2 ;
3 [label="X[3] <= 0.5\ngini = 0.276\nsamples = 133\nvalue = [111, 22]"] ;
2 -> 3 ;
4 [label="X[0] <= 23.0\ngini = 0.101\nsamples = 56\nvalue = [53, 3]"] ;
3 -> 4 ;
5 [label="gini = 0.0\nsamples = 31\nvalue = [31, 0]"] ;
4 -> 5 ;
6 [label="X[15] <= 0.5\ngini = 0.211\nsamples = 25\nvalue = [22, 3]"] ;
4 -> 6 ;
7 [label="X[13] <= 1.5\ngini = 0.1\nsamples = 19\nvalue = [18, 1]"] ;
6 -> 7 ;
8 [label="X[4] <= 1.0\ngini = 0.278\nsamples = 6\nvalue = [5, 1]"] ;
7 -> 8 ;
9 [label="X[2] <= 0.5\ngini = 0.5\nsamples = 2\nvalue = [1, 1]"] ;
8 -> 9 ;
10 [label="gini = 0.0\nsamples = 1\nvalue = [0, 1]"] ;
9 -> 10 ;
11 [label="gini = 0.0\nsamples = 1\nvalue = [1, 0]"] ;
9 -> 11 ;
12 [label="gini = 0.0\nsamples = 4\nvalue = [4, 0]"] ;
8 -> 12 ;
13 [label="gini = 0.0\nsamples = 13\nvalue = [13, 0]"] ;
7 -> 13 ;
14 [label="X[4] <= 7.0\ngini = 0.444\nsamples = 6\nvalue = [4, 2]"] ;
6 -> 14 ;
15 [label="X[13] <= 3.5\ngini = 0.444\nsamples = 3\nvalue = [1, 2]"] ;
14 -> 15 ;
16 [label="gini = 0.0\nsamples = 2\nvalue = [0, 2]"] ;
15 -> 16 ;
17 [label="gini = 0.0\nsamples = 1\nvalue = [1, 0]"] ;
15 -> 17 ;
18 [label="gini = 0.0\nsamples = 3\nvalue = [3, 0]"] ;
14 -> 18 ;
19 [label="X[7] <= 0.5\ngini = 0.372\nsamples = 77\nvalue = [58, 19]"] ;
3 -> 19 ;
20 [label="X[6] <= 0.5\ngini = 0.499\nsamples = 19\nvalue = [9, 10]"] ;
19 -> 20 ;
21 [label="X[10] <= 0.5\ngini = 0.469\nsamples = 16\nvalue = [6, 10]"] ;
20 -> 21 ;
22 [label="X[17] <= 1.5\ngini = 0.496\nsamples = 11\nvalue = [6, 5]"] ;
21 -> 22 ;
23 [label="X[12] <= 0.5\ngini = 0.278\nsamples = 6\nvalue = [5, 1]"] ;
22 -> 23 ;
24 [label="gini = 0.0\nsamples = 1\nvalue = [0, 1]"] ;
23 -> 24 ;
25 [label="gini = 0.0\nsamples = 5\nvalue = [5, 0]"] ;
23 -> 25 ;
26 [label="X[18] <= 0.5\ngini = 0.32\nsamples = 5\nvalue = [1, 4]"] ;
22 -> 26 ;
27 [label="gini = 0.0\nsamples = 4\nvalue = [0, 4]"] ;
26 -> 27 ;
28 [label="gini = 0.0\nsamples = 1\nvalue = [1, 0]"] ;
26 -> 28 ;
29 [label="gini = 0.0\nsamples = 5\nvalue = [0, 5]"] ;
21 -> 29 ;
30 [label="gini = 0.0\nsamples = 3\nvalue = [3, 0]"] ;
20 -> 30 ;
31 [label="X[21] <= 0.5\ngini = 0.262\nsamples = 58\nvalue = [49, 9]"] ;
19 -> 31 ;
32 [label="X[17] <= 0.5\ngini = 0.241\nsamples = 57\nvalue = [49, 8]"] ;
31 -> 32 ;
33 [label="gini = 0.0\nsamples = 24\nvalue = [24, 0]"] ;
32 -> 33 ;
34 [label="X[5] <= 3.5\ngini = 0.367\nsamples = 33\nvalue = [25, 8]"] ;
32 -> 34 ;
35 [label="X[19] <= 0.5\ngini = 0.269\nsamples = 25\nvalue = [21, 4]"] ;
34 -> 35 ;
36 [label="gini = 0.0\nsamples = 9\nvalue = [9, 0]"] ;
35 -> 36 ;
37 [label="X[0] <= 25.5\ngini = 0.375\nsamples = 16\nvalue = [12, 4]"] ;
35 -> 37 ;
38 [label="X[14] <= 0.5\ngini = 0.463\nsamples = 11\nvalue = [7, 4]"] ;
37 -> 38 ;
39 [label="gini = 0.0\nsamples = 3\nvalue = [3, 0]"] ;
38 -> 39 ;
40 [label="X[13] <= 1.0\ngini = 0.5\nsamples = 8\nvalue = [4, 4]"] ;
38 -> 40 ;
41 [label="gini = 0.0\nsamples = 2\nvalue = [2, 0]"] ;
40 -> 41 ;
42 [label="X[66] <= 0.5\ngini = 0.444\nsamples = 6\nvalue = [2, 4]"] ;
40 -> 42 ;
43 [label="X[16] <= 1.5\ngini = 0.444\nsamples = 3\nvalue = [2, 1]"] ;
42 -> 43 ;
44 [label="gini = 0.0\nsamples = 2\nvalue = [2, 0]"] ;
43 -> 44 ;
45 [label="gini = 0.0\nsamples = 1\nvalue = [0, 1]"] ;
43 -> 45 ;
46 [label="gini = 0.0\nsamples = 3\nvalue = [0, 3]"] ;
42 -> 46 ;
47 [label="gini = 0.0\nsamples = 5\nvalue = [5, 0]"] ;
37 -> 47 ;
48 [label="X[0] <= 16.5\ngini = 0.5\nsamples = 8\nvalue = [4, 4]"] ;
34 -> 48 ;
49 [label="gini = 0.0\nsamples = 3\nvalue = [0, 3]"] ;
48 -> 49 ;
50 [label="X[9] <= 0.5\ngini = 0.32\nsamples = 5\nvalue = [4, 1]"] ;
48 -> 50 ;
51 [label="gini = 0.0\nsamples = 1\nvalue = [0, 1]"] ;
50 -> 51 ;
52 [label="gini = 0.0\nsamples = 4\nvalue = [4, 0]"] ;
50 -> 52 ;
53 [label="gini = 0.0\nsamples = 1\nvalue = [0, 1]"] ;
31 -> 53 ;
54 [label="X[5] <= 0.5\ngini = 0.48\nsamples = 35\nvalue = [21, 14]"] ;
2 -> 54 ;
55 [label="gini = 0.0\nsamples = 3\nvalue = [0, 3]"] ;
54 -> 55 ;
56 [label="X[16] <= 1.5\ngini = 0.451\nsamples = 32\nvalue = [21, 11]"] ;
54 -> 56 ;
57 [label="X[0] <= 22.0\ngini = 0.499\nsamples = 23\nvalue = [12, 11]"] ;
56 -> 57 ;
58 [label="X[4] <= 4.5\ngini = 0.48\nsamples = 20\nvalue = [12, 8]"] ;
57 -> 58 ;
59 [label="X[17] <= 0.5\ngini = 0.497\nsamples = 13\nvalue = [6, 7]"] ;
58 -> 59 ;
60 [label="gini = 0.0\nsamples = 3\nvalue = [0, 3]"] ;
59 -> 60 ;
61 [label="X[11] <= 0.5\ngini = 0.48\nsamples = 10\nvalue = [6, 4]"] ;
59 -> 61 ;
62 [label="X[13] <= 1.5\ngini = 0.32\nsamples = 5\nvalue = [4, 1]"] ;
61 -> 62 ;
63 [label="gini = 0.0\nsamples = 1\nvalue = [0, 1]"] ;
62 -> 63 ;
64 [label="gini = 0.0\nsamples = 4\nvalue = [4, 0]"] ;
62 -> 64 ;
65 [label="X[8] <= 1.5\ngini = 0.48\nsamples = 5\nvalue = [2, 3]"] ;
61 -> 65 ;
66 [label="X[2] <= 0.5\ngini = 0.444\nsamples = 3\nvalue = [2, 1]"] ;
65 -> 66 ;
67 [label="gini = 0.0\nsamples = 1\nvalue = [0, 1]"] ;
66 -> 67 ;
68 [label="gini = 0.0\nsamples = 2\nvalue = [2, 0]"] ;
66 -> 68 ;
69 [label="gini = 0.0\nsamples = 2\nvalue = [0, 2]"] ;
65 -> 69 ;
70 [label="X[4] <= 162.5\ngini = 0.245\nsamples = 7\nvalue = [6, 1]"] ;
58 -> 70 ;
71 [label="gini = 0.0\nsamples = 6\nvalue = [6, 0]"] ;
70 -> 71 ;
72 [label="gini = 0.0\nsamples = 1\nvalue = [0, 1]"] ;
70 -> 72 ;
73 [label="gini = 0.0\nsamples = 3\nvalue = [0, 3]"] ;
57 -> 73 ;
74 [label="gini = 0.0\nsamples = 9\nvalue = [9, 0]"] ;
56 -> 74 ;
75 [label="X[0] <= 27.5\ngini = 0.493\nsamples = 136\nvalue = [76, 60]"] ;
1 -> 75 ;
76 [label="X[13] <= 3.5\ngini = 0.466\nsamples = 103\nvalue = [65, 38]"] ;
75 -> 76 ;
77 [label="X[0] <= 12.5\ngini = 0.499\nsamples = 74\nvalue = [39, 35]"] ;
76 -> 77 ;
78 [label="X[11] <= 1.0\ngini = 0.219\nsamples = 8\nvalue = [7, 1]"] ;
77 -> 78 ;
79 [label="gini = 0.0\nsamples = 7\nvalue = [7, 0]"] ;
78 -> 79 ;
80 [label="gini = 0.0\nsamples = 1\nvalue = [0, 1]"] ;
78 -> 80 ;
81 [label="X[0] <= 13.5\ngini = 0.5\nsamples = 66\nvalue = [32, 34]"] ;
77 -> 81 ;
82 [label="gini = 0.0\nsamples = 5\nvalue = [0, 5]"] ;
81 -> 82 ;
83 [label="X[12] <= 1.5\ngini = 0.499\nsamples = 61\nvalue = [32, 29]"] ;
81 -> 83 ;
84 [label="X[4] <= 2.5\ngini = 0.466\nsamples = 27\nvalue = [10, 17]"] ;
83 -> 84 ;
85 [label="X[4] <= 1.5\ngini = 0.499\nsamples = 19\nvalue = [10, 9]"] ;
84 -> 85 ;
86 [label="X[66] <= 0.5\ngini = 0.278\nsamples = 6\nvalue = [1, 5]"] ;
85 -> 86 ;
87 [label="gini = 0.0\nsamples = 5\nvalue = [0, 5]"] ;
86 -> 87 ;
88 [label="gini = 0.0\nsamples = 1\nvalue = [1, 0]"] ;
86 -> 88 ;
89 [label="X[15] <= 1.5\ngini = 0.426\nsamples = 13\nvalue = [9, 4]"] ;
85 -> 89 ;
90 [label="X[5] <= 4.0\ngini = 0.5\nsamples = 8\nvalue = [4, 4]"] ;
89 -> 90 ;
91 [label="X[13] <= 2.5\ngini = 0.375\nsamples = 4\nvalue = [1, 3]"] ;
90 -> 91 ;
92 [label="gini = 0.0\nsamples = 1\nvalue = [1, 0]"] ;
91 -> 92 ;
93 [label="gini = 0.0\nsamples = 3\nvalue = [0, 3]"] ;
91 -> 93 ;
94 [label="X[10] <= 0.5\ngini = 0.375\nsamples = 4\nvalue = [3, 1]"] ;
90 -> 94 ;
95 [label="gini = 0.0\nsamples = 3\nvalue = [3, 0]"] ;
94 -> 95 ;
96 [label="gini = 0.0\nsamples = 1\nvalue = [0, 1]"] ;
94 -> 96 ;
97 [label="gini = 0.0\nsamples = 5\nvalue = [5, 0]"] ;
89 -> 97 ;
98 [label="gini = 0.0\nsamples = 8\nvalue = [0, 8]"] ;
84 -> 98 ;
99 [label="X[19] <= 0.5\ngini = 0.457\nsamples = 34\nvalue = [22, 12]"] ;
83 -> 99 ;
100 [label="X[16] <= 0.5\ngini = 0.408\nsamples = 14\nvalue = [4, 10]"] ;
99 -> 100 ;
101 [label="X[65] <= 0.5\ngini = 0.375\nsamples = 4\nvalue = [3, 1]"] ;
100 -> 101 ;
102 [label="gini = 0.0\nsamples = 3\nvalue = [3, 0]"] ;
101 -> 102 ;
103 [label="gini = 0.0\nsamples = 1\nvalue = [0, 1]"] ;
101 -> 103 ;
104 [label="X[10] <= 1.5\ngini = 0.18\nsamples = 10\nvalue = [1, 9]"] ;
100 -> 104 ;
105 [label="gini = 0.0\nsamples = 9\nvalue = [0, 9]"] ;
104 -> 105 ;
106 [label="gini = 0.0\nsamples = 1\nvalue = [1, 0]"] ;
104 -> 106 ;
107 [label="X[4] <= 204.0\ngini = 0.18\nsamples = 20\nvalue = [18, 2]"] ;
99 -> 107 ;
108 [label="X[53] <= 0.5\ngini = 0.1\nsamples = 19\nvalue = [18, 1]"] ;
107 -> 108 ;
109 [label="gini = 0.0\nsamples = 18\nvalue = [18, 0]"] ;
108 -> 109 ;
110 [label="gini = 0.0\nsamples = 1\nvalue = [0, 1]"] ;
108 -> 110 ;
111 [label="gini = 0.0\nsamples = 1\nvalue = [0, 1]"] ;
107 -> 111 ;
112 [label="X[42] <= 0.5\ngini = 0.185\nsamples = 29\nvalue = [26, 3]"] ;
76 -> 112 ;
113 [label="X[17] <= 0.5\ngini = 0.133\nsamples = 28\nvalue = [26, 2]"] ;
112 -> 113 ;
114 [label="gini = 0.0\nsamples = 19\nvalue = [19, 0]"] ;
113 -> 114 ;
115 [label="X[2] <= 0.5\ngini = 0.346\nsamples = 9\nvalue = [7, 2]"] ;
113 -> 115 ;
116 [label="gini = 0.0\nsamples = 6\nvalue = [6, 0]"] ;
115 -> 116 ;
117 [label="X[10] <= 0.5\ngini = 0.444\nsamples = 3\nvalue = [1, 2]"] ;
115 -> 117 ;
118 [label="gini = 0.0\nsamples = 2\nvalue = [0, 2]"] ;
117 -> 118 ;
119 [label="gini = 0.0\nsamples = 1\nvalue = [1, 0]"] ;
117 -> 119 ;
120 [label="gini = 0.0\nsamples = 1\nvalue = [0, 1]"] ;
112 -> 120 ;
121 [label="X[66] <= 0.5\ngini = 0.444\nsamples = 33\nvalue = [11, 22]"] ;
75 -> 121 ;
122 [label="X[4] <= 0.5\ngini = 0.231\nsamples = 15\nvalue = [2, 13]"] ;
121 -> 122 ;
123 [label="X[16] <= 1.5\ngini = 0.444\nsamples = 3\nvalue = [2, 1]"] ;
122 -> 123 ;
124 [label="gini = 0.0\nsamples = 2\nvalue = [2, 0]"] ;
123 -> 124 ;
125 [label="gini = 0.0\nsamples = 1\nvalue = [0, 1]"] ;
123 -> 125 ;
126 [label="gini = 0.0\nsamples = 12\nvalue = [0, 12]"] ;
122 -> 126 ;
127 [label="X[4] <= 31.0\ngini = 0.5\nsamples = 18\nvalue = [9, 9]"] ;
121 -> 127 ;
128 [label="X[13] <= 1.5\ngini = 0.48\nsamples = 15\nvalue = [6, 9]"] ;
127 -> 128 ;
129 [label="gini = 0.0\nsamples = 2\nvalue = [2, 0]"] ;
128 -> 129 ;
130 [label="X[19] <= 1.5\ngini = 0.426\nsamples = 13\nvalue = [4, 9]"] ;
128 -> 130 ;
131 [label="X[9] <= 1.5\ngini = 0.375\nsamples = 12\nvalue = [3, 9]"] ;
130 -> 131 ;
132 [label="X[11] <= 0.5\ngini = 0.198\nsamples = 9\nvalue = [1, 8]"] ;
131 -> 132 ;
133 [label="X[13] <= 3.0\ngini = 0.5\nsamples = 2\nvalue = [1, 1]"] ;
132 -> 133 ;
134 [label="gini = 0.0\nsamples = 1\nvalue = [0, 1]"] ;
133 -> 134 ;
135 [label="gini = 0.0\nsamples = 1\nvalue = [1, 0]"] ;
133 -> 135 ;
136 [label="gini = 0.0\nsamples = 7\nvalue = [0, 7]"] ;
132 -> 136 ;
137 [label="X[11] <= 1.0\ngini = 0.444\nsamples = 3\nvalue = [2, 1]"] ;
131 -> 137 ;
138 [label="gini = 0.0\nsamples = 1\nvalue = [0, 1]"] ;
137 -> 138 ;
139 [label="gini = 0.0\nsamples = 2\nvalue = [2, 0]"] ;
137 -> 139 ;
140 [label="gini = 0.0\nsamples = 1\nvalue = [1, 0]"] ;
130 -> 140 ;
141 [label="gini = 0.0\nsamples = 3\nvalue = [3, 0]"] ;
127 -> 141 ;
142 [label="X[15] <= 0.5\ngini = 0.152\nsamples = 830\nvalue = [761, 69]"] ;
0 -> 142 [labeldistance=2.5, labelangle=-45, headlabel="False"] ;
143 [label="X[26] <= 0.5\ngini = 0.123\nsamples = 651\nvalue = [608, 43]"] ;
142 -> 143 ;
144 [label="X[27] <= 0.5\ngini = 0.119\nsamples = 647\nvalue = [606, 41]"] ;
143 -> 144 ;
145 [label="X[2] <= 0.5\ngini = 0.116\nsamples = 645\nvalue = [605, 40]"] ;
144 -> 145 ;
146 [label="X[35] <= 0.5\ngini = 0.083\nsamples = 414\nvalue = [396, 18]"] ;
145 -> 146 ;
147 [label="X[4] <= 24.5\ngini = 0.079\nsamples = 411\nvalue = [394, 17]"] ;
146 -> 147 ;
148 [label="X[4] <= 22.0\ngini = 0.102\nsamples = 297\nvalue = [281, 16]"] ;
147 -> 148 ;
149 [label="X[65] <= 0.5\ngini = 0.096\nsamples = 296\nvalue = [281, 15]"] ;
148 -> 149 ;
150 [label="X[14] <= 0.5\ngini = 0.075\nsamples = 256\nvalue = [246, 10]"] ;
149 -> 150 ;
151 [label="X[4] <= 2.5\ngini = 0.026\nsamples = 150\nvalue = [148, 2]"] ;
150 -> 151 ;
152 [label="gini = 0.0\nsamples = 130\nvalue = [130, 0]"] ;
151 -> 152 ;
153 [label="X[6] <= 0.5\ngini = 0.18\nsamples = 20\nvalue = [18, 2]"] ;
151 -> 153 ;
154 [label="gini = 0.0\nsamples = 14\nvalue = [14, 0]"] ;
153 -> 154 ;
155 [label="X[19] <= 0.5\ngini = 0.444\nsamples = 6\nvalue = [4, 2]"] ;
153 -> 155 ;
156 [label="gini = 0.0\nsamples = 2\nvalue = [0, 2]"] ;
155 -> 156 ;
157 [label="gini = 0.0\nsamples = 4\nvalue = [4, 0]"] ;
155 -> 157 ;
158 [label="X[5] <= 1.5\ngini = 0.14\nsamples = 106\nvalue = [98, 8]"] ;
150 -> 158 ;
159 [label="gini = 0.0\nsamples = 37\nvalue = [37, 0]"] ;
158 -> 159 ;
160 [label="X[0] <= 18.5\ngini = 0.205\nsamples = 69\nvalue = [61, 8]"] ;
158 -> 160 ;
161 [label="X[6] <= 0.5\ngini = 0.397\nsamples = 22\nvalue = [16, 6]"] ;
160 -> 161 ;
162 [label="X[12] <= 1.5\ngini = 0.266\nsamples = 19\nvalue = [16, 3]"] ;
161 -> 162 ;
163 [label="X[11] <= 1.5\ngini = 0.48\nsamples = 5\nvalue = [2, 3]"] ;
162 -> 163 ;
164 [label="gini = 0.0\nsamples = 3\nvalue = [0, 3]"] ;
163 -> 164 ;
165 [label="gini = 0.0\nsamples = 2\nvalue = [2, 0]"] ;
163 -> 165 ;
166 [label="gini = 0.0\nsamples = 14\nvalue = [14, 0]"] ;
162 -> 166 ;
167 [label="gini = 0.0\nsamples = 3\nvalue = [0, 3]"] ;
161 -> 167 ;
168 [label="X[0] <= 24.5\ngini = 0.081\nsamples = 47\nvalue = [45, 2]"] ;
160 -> 168 ;
169 [label="gini = 0.0\nsamples = 30\nvalue = [30, 0]"] ;
168 -> 169 ;
170 [label="X[0] <= 27.0\ngini = 0.208\nsamples = 17\nvalue = [15, 2]"] ;
168 -> 170 ;
171 [label="X[5] <= 4.5\ngini = 0.48\nsamples = 5\nvalue = [3, 2]"] ;
170 -> 171 ;
172 [label="X[19] <= 1.5\ngini = 0.444\nsamples = 3\nvalue = [1, 2]"] ;
171 -> 172 ;
173 [label="gini = 0.0\nsamples = 2\nvalue = [0, 2]"] ;
172 -> 173 ;
174 [label="gini = 0.0\nsamples = 1\nvalue = [1, 0]"] ;
172 -> 174 ;
175 [label="gini = 0.0\nsamples = 2\nvalue = [2, 0]"] ;
171 -> 175 ;
176 [label="gini = 0.0\nsamples = 12\nvalue = [12, 0]"] ;
170 -> 176 ;
177 [label="X[17] <= 0.5\ngini = 0.219\nsamples = 40\nvalue = [35, 5]"] ;
149 -> 177 ;
178 [label="gini = 0.0\nsamples = 10\nvalue = [10, 0]"] ;
177 -> 178 ;
179 [label="X[17] <= 1.5\ngini = 0.278\nsamples = 30\nvalue = [25, 5]"] ;
177 -> 179 ;
180 [label="X[8] <= 1.0\ngini = 0.49\nsamples = 7\nvalue = [4, 3]"] ;
179 -> 180 ;
181 [label="gini = 0.0\nsamples = 4\nvalue = [4, 0]"] ;
180 -> 181 ;
182 [label="gini = 0.0\nsamples = 3\nvalue = [0, 3]"] ;
180 -> 182 ;
183 [label="X[11] <= 0.5\ngini = 0.159\nsamples = 23\nvalue = [21, 2]"] ;
179 -> 183 ;
184 [label="X[5] <= 2.5\ngini = 0.32\nsamples = 10\nvalue = [8, 2]"] ;
183 -> 184 ;
185 [label="X[1] <= 0.5\ngini = 0.198\nsamples = 9\nvalue = [8, 1]"] ;
184 -> 185 ;
186 [label="gini = 0.0\nsamples = 7\nvalue = [7, 0]"] ;
185 -> 186 ;
187 [label="X[13] <= 3.0\ngini = 0.5\nsamples = 2\nvalue = [1, 1]"] ;
185 -> 187 ;
188 [label="gini = 0.0\nsamples = 1\nvalue = [0, 1]"] ;
187 -> 188 ;
189 [label="gini = 0.0\nsamples = 1\nvalue = [1, 0]"] ;
187 -> 189 ;
190 [label="gini = 0.0\nsamples = 1\nvalue = [0, 1]"] ;
184 -> 190 ;
191 [label="gini = 0.0\nsamples = 13\nvalue = [13, 0]"] ;
183 -> 191 ;
192 [label="gini = 0.0\nsamples = 1\nvalue = [0, 1]"] ;
148 -> 192 ;
193 [label="X[5] <= 4.5\ngini = 0.017\nsamples = 114\nvalue = [113, 1]"] ;
147 -> 193 ;
194 [label="gini = 0.0\nsamples = 89\nvalue = [89, 0]"] ;
193 -> 194 ;
195 [label="X[4] <= 219.5\ngini = 0.077\nsamples = 25\nvalue = [24, 1]"] ;
193 -> 195 ;
196 [label="gini = 0.0\nsamples = 22\nvalue = [22, 0]"] ;
195 -> 196 ;
197 [label="X[4] <= 229.0\ngini = 0.444\nsamples = 3\nvalue = [2, 1]"] ;
195 -> 197 ;
198 [label="gini = 0.0\nsamples = 1\nvalue = [0, 1]"] ;
197 -> 198 ;
199 [label="gini = 0.0\nsamples = 2\nvalue = [2, 0]"] ;
197 -> 199 ;
200 [label="X[3] <= 0.5\ngini = 0.444\nsamples = 3\nvalue = [2, 1]"] ;
146 -> 200 ;
201 [label="gini = 0.0\nsamples = 2\nvalue = [2, 0]"] ;
200 -> 201 ;
202 [label="gini = 0.0\nsamples = 1\nvalue = [0, 1]"] ;
200 -> 202 ;
203 [label="X[54] <= 0.5\ngini = 0.172\nsamples = 231\nvalue = [209, 22]"] ;
145 -> 203 ;
204 [label="X[0] <= 27.5\ngini = 0.166\nsamples = 230\nvalue = [209, 21]"] ;
203 -> 204 ;
205 [label="X[4] <= 76.5\ngini = 0.139\nsamples = 200\nvalue = [185, 15]"] ;
204 -> 205 ;
206 [label="X[0] <= 13.5\ngini = 0.115\nsamples = 179\nvalue = [168, 11]"] ;
205 -> 206 ;
207 [label="X[5] <= 4.0\ngini = 0.311\nsamples = 26\nvalue = [21, 5]"] ;
206 -> 207 ;
208 [label="X[1] <= 0.5\ngini = 0.091\nsamples = 21\nvalue = [20, 1]"] ;
207 -> 208 ;
209 [label="gini = 0.0\nsamples = 19\nvalue = [19, 0]"] ;
208 -> 209 ;
210 [label="X[10] <= 1.0\ngini = 0.5\nsamples = 2\nvalue = [1, 1]"] ;
208 -> 210 ;
211 [label="gini = 0.0\nsamples = 1\nvalue = [1, 0]"] ;
210 -> 211 ;
212 [label="gini = 0.0\nsamples = 1\nvalue = [0, 1]"] ;
210 -> 212 ;
213 [label="X[12] <= 1.5\ngini = 0.32\nsamples = 5\nvalue = [1, 4]"] ;
207 -> 213 ;
214 [label="X[19] <= 0.5\ngini = 0.5\nsamples = 2\nvalue = [1, 1]"] ;
213 -> 214 ;
215 [label="gini = 0.0\nsamples = 1\nvalue = [0, 1]"] ;
214 -> 215 ;
216 [label="gini = 0.0\nsamples = 1\nvalue = [1, 0]"] ;
214 -> 216 ;
217 [label="gini = 0.0\nsamples = 3\nvalue = [0, 3]"] ;
213 -> 217 ;
218 [label="X[12] <= 0.5\ngini = 0.075\nsamples = 153\nvalue = [147, 6]"] ;
206 -> 218 ;
219 [label="X[17] <= 1.5\ngini = 0.444\nsamples = 3\nvalue = [2, 1]"] ;
218 -> 219 ;
220 [label="gini = 0.0\nsamples = 2\nvalue = [2, 0]"] ;
219 -> 220 ;
221 [label="gini = 0.0\nsamples = 1\nvalue = [0, 1]"] ;
219 -> 221 ;
222 [label="X[21] <= 0.5\ngini = 0.064\nsamples = 150\nvalue = [145, 5]"] ;
218 -> 222 ;
223 [label="X[17] <= 1.5\ngini = 0.053\nsamples = 146\nvalue = [142, 4]"] ;
222 -> 223 ;
224 [label="X[65] <= 0.5\ngini = 0.112\nsamples = 67\nvalue = [63, 4]"] ;
223 -> 224 ;
225 [label="X[0] <= 14.5\ngini = 0.089\nsamples = 64\nvalue = [61, 3]"] ;
224 -> 225 ;
226 [label="X[9] <= 1.5\ngini = 0.375\nsamples = 4\nvalue = [3, 1]"] ;
225 -> 226 ;
227 [label="gini = 0.0\nsamples = 3\nvalue = [3, 0]"] ;
226 -> 227 ;
228 [label="gini = 0.0\nsamples = 1\nvalue = [0, 1]"] ;
226 -> 228 ;
229 [label="X[6] <= 0.5\ngini = 0.064\nsamples = 60\nvalue = [58, 2]"] ;
225 -> 229 ;
230 [label="gini = 0.0\nsamples = 39\nvalue = [39, 0]"] ;
229 -> 230 ;
231 [label="X[9] <= 1.5\ngini = 0.172\nsamples = 21\nvalue = [19, 2]"] ;
229 -> 231 ;
232 [label="X[19] <= 1.5\ngini = 0.1\nsamples = 19\nvalue = [18, 1]"] ;
231 -> 232 ;
233 [label="gini = 0.0\nsamples = 17\nvalue = [17, 0]"] ;
232 -> 233 ;
234 [label="X[18] <= 0.5\ngini = 0.5\nsamples = 2\nvalue = [1, 1]"] ;
232 -> 234 ;
235 [label="gini = 0.0\nsamples = 1\nvalue = [0, 1]"] ;
234 -> 235 ;
236 [label="gini = 0.0\nsamples = 1\nvalue = [1, 0]"] ;
234 -> 236 ;
237 [label="X[8] <= 1.5\ngini = 0.5\nsamples = 2\nvalue = [1, 1]"] ;
231 -> 237 ;
238 [label="gini = 0.0\nsamples = 1\nvalue = [0, 1]"] ;
237 -> 238 ;
239 [label="gini = 0.0\nsamples = 1\nvalue = [1, 0]"] ;
237 -> 239 ;
240 [label="X[9] <= 0.5\ngini = 0.444\nsamples = 3\nvalue = [2, 1]"] ;
224 -> 240 ;
241 [label="gini = 0.0\nsamples = 1\nvalue = [0, 1]"] ;
240 -> 241 ;
242 [label="gini = 0.0\nsamples = 2\nvalue = [2, 0]"] ;
240 -> 242 ;
243 [label="gini = 0.0\nsamples = 79\nvalue = [79, 0]"] ;
223 -> 243 ;
244 [label="X[0] <= 20.5\ngini = 0.375\nsamples = 4\nvalue = [3, 1]"] ;
222 -> 244 ;
245 [label="gini = 0.0\nsamples = 3\nvalue = [3, 0]"] ;
244 -> 245 ;
246 [label="gini = 0.0\nsamples = 1\nvalue = [0, 1]"] ;
244 -> 246 ;
247 [label="X[4] <= 92.5\ngini = 0.308\nsamples = 21\nvalue = [17, 4]"] ;
205 -> 247 ;
248 [label="gini = 0.0\nsamples = 2\nvalue = [0, 2]"] ;
247 -> 248 ;
249 [label="X[3] <= 0.5\ngini = 0.188\nsamples = 19\nvalue = [17, 2]"] ;
247 -> 249 ;
250 [label="X[4] <= 214.5\ngini = 0.105\nsamples = 18\nvalue = [17, 1]"] ;
249 -> 250 ;
251 [label="gini = 0.0\nsamples = 15\nvalue = [15, 0]"] ;
250 -> 251 ;
252 [label="X[11] <= 1.5\ngini = 0.444\nsamples = 3\nvalue = [2, 1]"] ;
250 -> 252 ;
253 [label="gini = 0.0\nsamples = 2\nvalue = [2, 0]"] ;
252 -> 253 ;
254 [label="gini = 0.0\nsamples = 1\nvalue = [0, 1]"] ;
252 -> 254 ;
255 [label="gini = 0.0\nsamples = 1\nvalue = [0, 1]"] ;
249 -> 255 ;
256 [label="X[5] <= 0.5\ngini = 0.32\nsamples = 30\nvalue = [24, 6]"] ;
204 -> 256 ;
257 [label="gini = 0.0\nsamples = 3\nvalue = [0, 3]"] ;
256 -> 257 ;
258 [label="X[0] <= 29.5\ngini = 0.198\nsamples = 27\nvalue = [24, 3]"] ;
256 -> 258 ;
259 [label="X[0] <= 28.5\ngini = 0.42\nsamples = 10\nvalue = [7, 3]"] ;
258 -> 259 ;
260 [label="gini = 0.0\nsamples = 4\nvalue = [4, 0]"] ;
259 -> 260 ;
261 [label="X[13] <= 3.5\ngini = 0.5\nsamples = 6\nvalue = [3, 3]"] ;
259 -> 261 ;
262 [label="X[19] <= 0.5\ngini = 0.375\nsamples = 4\nvalue = [1, 3]"] ;
261 -> 262 ;
263 [label="gini = 0.0\nsamples = 1\nvalue = [1, 0]"] ;
262 -> 263 ;
264 [label="gini = 0.0\nsamples = 3\nvalue = [0, 3]"] ;
262 -> 264 ;
265 [label="gini = 0.0\nsamples = 2\nvalue = [2, 0]"] ;
261 -> 265 ;
266 [label="gini = 0.0\nsamples = 17\nvalue = [17, 0]"] ;
258 -> 266 ;
267 [label="gini = 0.0\nsamples = 1\nvalue = [0, 1]"] ;
203 -> 267 ;
268 [label="X[9] <= 1.0\ngini = 0.5\nsamples = 2\nvalue = [1, 1]"] ;
144 -> 268 ;
269 [label="gini = 0.0\nsamples = 1\nvalue = [0, 1]"] ;
268 -> 269 ;
270 [label="gini = 0.0\nsamples = 1\nvalue = [1, 0]"] ;
268 -> 270 ;
271 [label="X[2] <= 0.5\ngini = 0.5\nsamples = 4\nvalue = [2, 2]"] ;
143 -> 271 ;
272 [label="gini = 0.0\nsamples = 2\nvalue = [2, 0]"] ;
271 -> 272 ;
273 [label="gini = 0.0\nsamples = 2\nvalue = [0, 2]"] ;
271 -> 273 ;
274 [label="X[0] <= 44.5\ngini = 0.248\nsamples = 179\nvalue = [153, 26]"] ;
142 -> 274 ;
275 [label="X[1] <= 0.5\ngini = 0.236\nsamples = 176\nvalue = [152, 24]"] ;
274 -> 275 ;
276 [label="X[21] <= 0.5\ngini = 0.187\nsamples = 144\nvalue = [129, 15]"] ;
275 -> 276 ;
277 [label="X[24] <= 0.5\ngini = 0.177\nsamples = 143\nvalue = [129, 14]"] ;
276 -> 277 ;
278 [label="X[62] <= 0.5\ngini = 0.166\nsamples = 142\nvalue = [129, 13]"] ;
277 -> 278 ;
279 [label="X[0] <= 23.5\ngini = 0.156\nsamples = 141\nvalue = [129, 12]"] ;
278 -> 279 ;
280 [label="X[36] <= 0.5\ngini = 0.045\nsamples = 86\nvalue = [84, 2]"] ;
279 -> 280 ;
281 [label="X[12] <= 1.5\ngini = 0.024\nsamples = 84\nvalue = [83, 1]"] ;
280 -> 281 ;
282 [label="X[0] <= 20.5\ngini = 0.105\nsamples = 18\nvalue = [17, 1]"] ;
281 -> 282 ;
283 [label="gini = 0.0\nsamples = 12\nvalue = [12, 0]"] ;
282 -> 283 ;
284 [label="X[0] <= 22.0\ngini = 0.278\nsamples = 6\nvalue = [5, 1]"] ;
282 -> 284 ;
285 [label="gini = 0.0\nsamples = 1\nvalue = [0, 1]"] ;
284 -> 285 ;
286 [label="gini = 0.0\nsamples = 5\nvalue = [5, 0]"] ;
284 -> 286 ;
287 [label="gini = 0.0\nsamples = 66\nvalue = [66, 0]"] ;
281 -> 287 ;
288 [label="X[2] <= 0.5\ngini = 0.5\nsamples = 2\nvalue = [1, 1]"] ;
280 -> 288 ;
289 [label="gini = 0.0\nsamples = 1\nvalue = [1, 0]"] ;
288 -> 289 ;
290 [label="gini = 0.0\nsamples = 1\nvalue = [0, 1]"] ;
288 -> 290 ;
291 [label="X[50] <= 0.5\ngini = 0.298\nsamples = 55\nvalue = [45, 10]"] ;
279 -> 291 ;
292 [label="X[6] <= 0.5\ngini = 0.278\nsamples = 54\nvalue = [45, 9]"] ;
291 -> 292 ;
293 [label="X[5] <= 0.5\ngini = 0.375\nsamples = 36\nvalue = [27, 9]"] ;
292 -> 293 ;
294 [label="gini = 0.0\nsamples = 2\nvalue = [0, 2]"] ;
293 -> 294 ;
295 [label="X[5] <= 4.5\ngini = 0.327\nsamples = 34\nvalue = [27, 7]"] ;
293 -> 295 ;
296 [label="X[4] <= 0.5\ngini = 0.105\nsamples = 18\nvalue = [17, 1]"] ;
295 -> 296 ;
297 [label="X[0] <= 26.5\ngini = 0.444\nsamples = 3\nvalue = [2, 1]"] ;
296 -> 297 ;
298 [label="gini = 0.0\nsamples = 1\nvalue = [0, 1]"] ;
297 -> 298 ;
299 [label="gini = 0.0\nsamples = 2\nvalue = [2, 0]"] ;
297 -> 299 ;
300 [label="gini = 0.0\nsamples = 15\nvalue = [15, 0]"] ;
296 -> 300 ;
301 [label="X[13] <= 2.5\ngini = 0.469\nsamples = 16\nvalue = [10, 6]"] ;
295 -> 301 ;
302 [label="X[0] <= 26.5\ngini = 0.245\nsamples = 7\nvalue = [6, 1]"] ;
301 -> 302 ;
303 [label="X[2] <= 0.5\ngini = 0.5\nsamples = 2\nvalue = [1, 1]"] ;
302 -> 303 ;
304 [label="gini = 0.0\nsamples = 1\nvalue = [0, 1]"] ;
303 -> 304 ;
305 [label="gini = 0.0\nsamples = 1\nvalue = [1, 0]"] ;
303 -> 305 ;
306 [label="gini = 0.0\nsamples = 5\nvalue = [5, 0]"] ;
302 -> 306 ;
307 [label="X[10] <= 1.5\ngini = 0.494\nsamples = 9\nvalue = [4, 5]"] ;
301 -> 307 ;
308 [label="X[0] <= 27.0\ngini = 0.408\nsamples = 7\nvalue = [2, 5]"] ;
307 -> 308 ;
309 [label="gini = 0.0\nsamples = 2\nvalue = [2, 0]"] ;
308 -> 309 ;
310 [label="gini = 0.0\nsamples = 5\nvalue = [0, 5]"] ;
308 -> 310 ;
311 [label="gini = 0.0\nsamples = 2\nvalue = [2, 0]"] ;
307 -> 311 ;
312 [label="gini = 0.0\nsamples = 18\nvalue = [18, 0]"] ;
292 -> 312 ;
313 [label="gini = 0.0\nsamples = 1\nvalue = [0, 1]"] ;
291 -> 313 ;
314 [label="gini = 0.0\nsamples = 1\nvalue = [0, 1]"] ;
278 -> 314 ;
315 [label="gini = 0.0\nsamples = 1\nvalue = [0, 1]"] ;
277 -> 315 ;
316 [label="gini = 0.0\nsamples = 1\nvalue = [0, 1]"] ;
276 -> 316 ;
317 [label="X[0] <= 14.5\ngini = 0.404\nsamples = 32\nvalue = [23, 9]"] ;
275 -> 317 ;
318 [label="X[38] <= 0.5\ngini = 0.32\nsamples = 5\nvalue = [1, 4]"] ;
317 -> 318 ;
319 [label="gini = 0.0\nsamples = 4\nvalue = [0, 4]"] ;
318 -> 319 ;
320 [label="gini = 0.0\nsamples = 1\nvalue = [1, 0]"] ;
318 -> 320 ;
321 [label="X[18] <= 0.5\ngini = 0.302\nsamples = 27\nvalue = [22, 5]"] ;
317 -> 321 ;
322 [label="X[60] <= 0.5\ngini = 0.165\nsamples = 22\nvalue = [20, 2]"] ;
321 -> 322 ;
323 [label="X[12] <= 0.5\ngini = 0.091\nsamples = 21\nvalue = [20, 1]"] ;
322 -> 323 ;
324 [label="X[66] <= 0.5\ngini = 0.444\nsamples = 3\nvalue = [2, 1]"] ;
323 -> 324 ;
325 [label="gini = 0.0\nsamples = 1\nvalue = [0, 1]"] ;
324 -> 325 ;
326 [label="gini = 0.0\nsamples = 2\nvalue = [2, 0]"] ;
324 -> 326 ;
327 [label="gini = 0.0\nsamples = 18\nvalue = [18, 0]"] ;
323 -> 327 ;
328 [label="gini = 0.0\nsamples = 1\nvalue = [0, 1]"] ;
322 -> 328 ;
329 [label="X[66] <= 0.5\ngini = 0.48\nsamples = 5\nvalue = [2, 3]"] ;
321 -> 329 ;
330 [label="gini = 0.0\nsamples = 3\nvalue = [0, 3]"] ;
329 -> 330 ;
331 [label="gini = 0.0\nsamples = 2\nvalue = [2, 0]"] ;
329 -> 331 ;
332 [label="X[5] <= 4.5\ngini = 0.444\nsamples = 3\nvalue = [1, 2]"] ;
274 -> 332 ;
333 [label="gini = 0.0\nsamples = 2\nvalue = [0, 2]"] ;
332 -> 333 ;
334 [label="gini = 0.0\nsamples = 1\nvalue = [1, 0]"] ;
332 -> 334 ;
}